tree
version=v4
num_class=1
num_tree_per_iteration=1
label_index=0
max_feature_idx=3
objective=lambdarank
feature_names=Column_0 Column_1 Column_2 Column_3
feature_infos=[0:1.9992064662025488] [50:500] [0:1] [0:0.59866424045533728]
tree_sizes=3249 3407 3399 3389 3391

Tree=0
num_leaves=30
num_cat=0
split_feature=0 0 3 1 0 1 1 1 0 0 0 3 1 3 1 1 3 3 0 3 3 3 1 1 1 0 1 1 1
split_gain=346.89 14.0971 4.29205 0.950463 0.803013 0.264271 0.26152 1.08366 0.905026 0.585191 0.554948 0.338231 0.313491 0.768477 0.479465 0.277713 0.272316 0.220687 0.202293 0.191281 0.165428 0.150152 0.145474 0.0914869 0.0443364 0.00351626 2.84217e-14 1.42109e-14 7.10543e-15
threshold=1.0000000180025095e-35 0.99919646848087851 0.3184694641476481 75.000000000000014 0.94129052543617331 64.500000000000014 286.50000000000006 327.50000000000006 0.46675270031419186 0.84770912483685601 0.44117009668210178 0.10565679566394631 388.50000000000006 0.17214408211528773 449.50000000000006 194.50000000000003 0.17979563598376452 0.10066502536252532 0.97216607401529731 0.19452817768477143 0.17875743706556357 0.077899714288766117 319.50000000000006 120.50000000000001 451.50000000000006 1.1168768996050586 77.500000000000014 252.50000000000003 120.50000000000001
decision_type=2 2 2 2 2 2 2 2 2 2 2 2 2 2 2 2 2 2 2 2 2 2 2 2 2 2 2 2 2
left_child=26 2 3 5 6 -2 8 22 11 15 -9 -5 16 14 -14 17 -12 -10 -6 21 -13 -17 -8 -19 -15 -3 -1 28 -27
right_child=1 25 -4 4 18 -7 7 10 9 -11 12 20 13 24 -16 19 -18 23 -20 -21 -22 -23 -24 -25 -26 27 -28 -29 -30
leaf_value=-0.10000000000000001 0.036221583682877055 0.098356454784464795 0.10000000000000001 0.0095979514275417663 0.081217882050647991 0.0057239842554932573 0.027048288419898148 0.071461438716833456 0.045021780746963315 0.036174690106247777 0.045216227785534441 0.054410059394086302 0.038715439812957171 0.023142255016032249 0.073879338296204994 0.066115115241555264 0.071652915668832862 0.054950531515061345 0.058809783784357451 0.056171919435892198 0.030945633628165482 0.08512999621119538 0.0058166084537305436 0.071201828648937787 0.0098883528072938615 0.099999999999999922 -0.10000000000000001 0.10000000000000001 0.099999999999999992
leaf_weight=3.2202906478196374 1.4117792276665562 3.8174441792070892 4.5334146358072749 1.1951994765549923 2.3715724702924481 1.429643217474222 1.9602864980697661 2.4950066478922954 2.7598318606615049 2.4680538289248934 2.3149980790913092 1.3091971930116417 2.5807746658101678 1.3523137327283623 1.5525883333757518 1.914636794477701 1.6817046292126177 1.5677415430545809 1.7506972691044209 1.6161258183419702 1.7622566306963561 2.2680459748953581 1.3710677437484262 1.9347557434812186 1.1829095873981712 3.5479884818196314 47.749274090165272 11.709021199494599 6.803449384868145
leaf_count=46 23 24 31 19 24 17 33 39 38 37 33 17 34 24 22 20 18 23 25 27 26 27 18 23 19 25 763 80 45
internal_value=-2.25078e-11 0.0701456 0.0537664 0.0488057 0.0508194 0.0208769 0.0483799 0.0437847 0.0524119 0.0583574 0.0502332 0.0321655 0.0452671 0.0386308 0.0519238 0.0628966 0.0563401 0.0555958 0.0717013 0.0707811 0.0409473 0.0764259 0.0183101 0.0639276 0.0169581 0.0997575 -0.1 0.1 0.1
internal_weight=123.632 72.6625 46.7846 42.2512 39.4098 2.84142 35.2875 16.4916 18.7958 14.5292 13.1603 4.26665 10.6653 6.66859 4.13336 12.0611 3.9967 6.26233 4.12227 5.79881 3.07145 4.18268 3.33135 3.5025 2.53522 25.8779 50.9696 22.0605 10.3514
internal_count=1600 791 617 586 546 40 497 240 257 195 189 62 150 99 56 158 51 84 49 74 43 47 51 46 43 174 809 150 70
is_linear=0
shrinkage=0.05


Tree=1
num_leaves=31
num_cat=0
split_feature=0 0 3 0 3 0 1 0 3 3 2 1 1 3 0 1 0 3 3 0 0 3 1 0 3 1 1 1 0 0
split_gain=594.797 127.071 70.5217 62.7616 6.6117 3.89501 3.5342 3.47522 3.99051 3.34783 2.98824 2.69814 4.66254 5.44477 2.49111 2.2541 1.76054 1.62561 1.25687 1.06016 1.64247 1.65957 0.952852 0.733748 0.43707 0.00209173 0.00856293 0.00190929 0.00169952 0.00278175
threshold=0.61073007815435332 1.0115604675637717 0.29067666768070161 0.31175148153327764 0.15041001240578142 0.67376883066372106 432.50000000000006 0.72254070581065033 0.082673313870804552 0.10676771102101847 1.0000000180025095e-35 146.50000000000003 220.50000000000003 0.21267872505523136 0.40801473995534548 143.50000000000003 0.80884623823527158 0.037129575396334207 0.20903404100976103 0.40440185912172916 0.56680976839244401 0.092815493588812817 253.50000000000003 0.50557787419305633 0.14594273975690694 203.50000000000003 195.50000000000003 472.50000000000006 1.1168768996050586 1.3190031291241155
decision_type=2 2 2 2 2 2 2 2 2 2 2 2 2 2 2 2 2 2 2 2 2 2 2 2 2 2 2 2 2 2
left_child=3 2 4 25 5 -2 11 -7 17 -10 14 16 -13 -14 -5 24 -6 -9 -16 -17 21 -21 -19 -23 -12 26 -1 -27 -3 -30
right_child=1 28 -4 10 6 7 -8 8 9 -11 15 12 13 -15 18 19 -18 22 -20 20 -22 23 -24 -25 -26 27 -28 -29 29 -31
leaf_value=-0.091250957727042614 -0.022054958243155721 0.094931747811502112 0.093234029794041107 0.018762573426924577 -0.015861923042923397 0.049456502721105064 -0.058807123996513049 0.0091298059338366811 0.046378780692782541 0.0023213369476477552 -0.044829230789406656 0.030212269869440846 -0.04566736340862132 0.0072863763978464674 -0.0092422826286665156 -0.0062512857192998129 -0.060166100933859518 -0.041017742190890577 -0.04319158307499045 -0.018830278068619203 -0.0055587168287148155 -0.039713466594849589 -0.0081306614788668706 -0.0687999381774059 -0.067995956976680011 -0.091562741609168732 -0.088388318321038897 -0.090481172221958506 0.093772041960918123 0.094437025712603276
leaf_weight=38.497310362756252 8.1003316938877088 11.713101908564566 24.302497029304504 5.8286143802106407 4.9044496566057187 6.4892325252294532 4.6602200679481021 7.3565531820058849 9.4007043093442935 7.965358927845954 4.1126616224646551 7.0968857854604748 9.0001415163278597 10.538098305463789 7.8204324655234796 5.3497547060251263 4.1310285627841949 3.9339566156268102 4.1852931678295135 5.7092201411724117 4.6363018453121176 4.565434165298937 5.0041646510362625 4.1293429583311081 4.0318474695086479 70.421277891844511 2.8025063350796691 4.3313810750842086 20.095882773399353 72.333563052117825
leaf_count=273 35 21 36 29 24 16 27 27 19 28 24 20 38 37 38 22 20 18 21 26 19 23 24 18 19 496 20 32 30 120
internal_value=1.26055e-10 0.0545318 0.0177837 -0.0711137 -0.00291632 0.00957259 -0.0178576 0.0159535 0.00949469 0.0261708 -0.0245059 -0.0125077 -0.00449839 -0.0171064 -0.00805683 -0.0335227 -0.0361178 -0.00827788 -0.0210773 -0.0259175 -0.0314431 -0.0397747 -0.0226053 -0.0535273 -0.0562977 -0.0913423 -0.0910567 -0.0915001 0.0943643 0.0942924
internal_weight=383.448 217.026 112.884 166.421 88.5811 48.2503 40.3308 40.15 33.6607 17.3661 50.3689 35.6706 26.6351 19.5382 17.8343 32.5346 9.03548 16.2947 12.0057 24.3901 19.0403 14.404 8.93812 8.69478 8.14451 116.052 41.2998 74.7527 104.143 92.4294
internal_count=1600 540 369 1060 333 167 166 132 116 47 239 139 95 75 88 151 44 69 59 108 86 67 42 41 43 821 293 528 171 150
is_linear=0
shrinkage=0.05


Tree=2
num_leaves=31
num_cat=0
split_feature=0 0 3 0 3 3 2 0 1 0 3 1 3 0 2 1 1 1 0 0 1 0 0 3 0 3 1 1 1 1
split_gain=485.61 101.867 26.4681 4.66409 5.59942 3.78272 3.10947 3.09067 3.0264 2.73931 2.1835 2.18187 1.85462 1.68045 1.46968 1.38052 1.56591 2.6295 1.18459 0.986092 0.840503 0.729346 0.684082 0.384328 0.196879 0.0749595 0.0492202 0.0114729 0.00793301 0.00504226
threshold=0.31175148153327764 0.99919646848087851 0.3184694641476481 0.68368728241501886 0.15334022387081922 0.26582881402023101 1.0000000180025095e-35 0.71985424820247768 458.50000000000006 0.40801473995534548 0.082673313870804552 287.50000000000006 0.10411061616274667 0.84770912483685601 1.0000000180025095e-35 184.50000000000003 389.50000000000006 332.50000000000006 0.87472888379584834 0.93490533841949175 247.50000000000003 0.54667302190406575 0.52815067288121298 0.10066502536252532 0.60507565168116206 0.096584462501217064 166.50000000000003 203.50000000000003 194.50000000000003 405.50000000000006
decision_type=2 2 2 2 2 2 2 2 2 2 2 2 2 2 2 2 2 2 2 2 2 2 2 2 2 2 2 2 2 2
left_child=27 2 3 6 7 13 9 -5 15 -2 14 26 -12 20 -9 21 17 24 -16 -15 -6 23 -13 -8 -17 -3 -11 28 -1 -27
right_child=1 25 -4 4 5 -7 8 10 -10 11 12 22 -14 19 18 16 -18 -19 -20 -21 -22 -23 -24 -25 -26 29 -28 -29 -30 -31
leaf_value=-0.085405079726864244 0.039838311523620766 0.083581803087103113 0.088075827410944649 0.065870673419903686 0.015685158037770503 0.043739031033464465 -0.057318440646525665 0.032667172532561468 0.031524141595467202 0.023107183685537477 0.057042937195457215 -0.0050116218565541852 0.020225582818482597 -0.041750960575830984 -0.019680277094110025 -0.0099435950413698931 -0.032851647039244418 0.029786959759021361 0.017814485412631094 -0.0077116167864507441 -0.011056176324490899 -0.013584137199980188 -0.037723962841786252 -0.032625636852594057 -0.024747501307425371 0.087444314826795488 0.014902743149469742 -0.086283472230048258 -0.082634025021788779 0.088435368352032639
leaf_weight=32.727413896471262 6.4008123353123692 13.24649343639612 11.405102282762526 5.4828111529350272 6.3636335358023697 4.1054478287696829 2.5279433242976683 4.6567451693117627 3.5387621149420729 3.5334492400288564 6.8459989428520185 3.2467113435268402 6.8360191360116005 4.5313851758837682 4.5445608906447887 5.2549689486622828 5.2193129211664191 4.6789341419935218 3.9266126938164234 4.0108375735580921 5.4592089802026749 3.4299716092646122 3.1475371941924095 4.1837542131543159 3.9221353977918625 54.842289127409458 3.7875224351882935 72.366231881082058 2.804075375199317 16.755368262529373
leaf_count=269 29 27 31 11 29 18 20 22 16 18 16 20 30 29 28 36 30 22 20 26 34 24 23 32 18 114 23 528 24 33
internal_value=-9.75285e-12 0.0450292 0.0155835 0.00804228 0.0179954 -4.47394e-05 -0.00264336 0.0316656 -0.0121457 0.0128296 0.0246705 0.000224836 0.0386477 -0.00887123 0.0101033 -0.0174349 -0.00951008 -0.000717746 -0.00230046 -0.0257684 0.00333732 -0.0323407 -0.0211141 -0.0419261 -0.0162705 0.087037 0.0188626 -0.0859222 -0.0851864 0.0876762
internal_weight=313.782 205.884 121.04 109.635 56.7633 24.4705 52.8718 32.2927 32.7558 20.116 26.8099 13.7152 13.682 20.3651 13.1279 29.217 19.0754 13.856 8.47117 8.54222 11.8228 10.1417 6.39425 6.7117 9.1771 84.8442 7.32097 107.898 35.5315 71.5977
internal_count=1600 779 605 574 263 136 311 127 198 113 116 84 46 118 70 182 106 76 48 55 63 76 43 52 54 174 41 821 293 147
is_linear=0
shrinkage=0.05


Tree=3
num_leaves=31
num_cat=0
split_feature=0 0 3 0 3 1 0 3 1 1 1 3 0 1 0 0 1 1 1 2 0 3 1 3 1 1 1 1 1 1
split_gain=390.81 70.885 23.0523 3.07 3.29313 3.03258 2.9327 2.68378 2.68519 2.70813 2.25397 1.7195 2.11515 1.56238 1.31724 0.82984 0.809479 0.78721 0.755739 0.716268 0.792254 2.54179 0.589505 0.56982 0.0209103 0.0136279 0.00544893 0.0279927 0.00586187 0.00379215
threshold=0.31175148153327764 1.0115604675637717 0.3184694641476481 0.67229957245428296 0.10676771102101847 474.50000000000006 0.40440185912172916 0.25781842019564233 247.50000000000003 154.50000000000003 240.50000000000003 0.030208430464960152 0.79102248593638447 347.50000000000006 0.42697868860413751 0.65110750857505006 422.50000000000006 342.50000000000006 425.50000000000006 1.0000000180025095e-35 0.56680976839244401 0.20566669867214438 287.50000000000006 0.15484703363215507 203.50000000000003 194.50000000000003 162.50000000000003 151.50000000000003 139.50000000000003 388.50000000000006
decision_type=2 2 2 2 2 2 2 2 2 2 2 2 2 2 2 2 2 2 2 2 2 2 2 2 2 2 2 2 2 2
left_child=24 2 3 5 11 6 10 8 9 -6 -2 -5 -13 -14 -8 16 19 -10 -19 22 23 -22 -16 -21 25 26 27 28 -1 -3
right_child=1 29 -4 4 7 -7 14 -9 17 -11 -12 12 13 -15 15 -17 -18 18 -20 20 21 -23 -24 -25 -26 -27 -28 -29 -30 -31
leaf_value=-0.080373822994436156 -0.0088827254792387782 0.08259031232868097 0.083541863548483752 0.0078901879953775945 -0.012927887550973084 0.046428783909014469 -0.042423014750890234 0.038704374902681069 -0.035342986589252341 0.034370279978460878 0.038681472082123886 0.059788661303865356 0.01101100933777921 0.049073500747179456 0.02090136774867575 -0.034562858121552874 -0.029688796890800263 0.0062519992870528358 -0.025584295420529118 -0.0069602683899650285 -0.026685527345190904 0.033775902642197667 -0.0076301943257952396 -0.03456075310571672 -0.081747795089957803 -0.076619593551828277 -0.081720885401552396 -0.075118986484464481 -0.082794945620994945 0.083395347327946803
leaf_weight=16.69321753084661 4.1013276167213899 48.932989899069071 12.1497890278697 5.6595962122082737 4.9477560017257982 3.371854566037654 2.9512004107236889 5.5575648248195639 3.9667579680681211 7.7931415140628815 6.3426044210791588 7.5653624758124378 6.9964445196092111 4.3863781690597534 5.0877630561590275 2.5352573879063121 2.8436993658542624 4.2122204527258873 3.3439187929034233 4.2405955977737904 3.3994612172245979 3.5572828650474548 2.8104780502617359 3.3451546058058739 65.137575481086969 2.4794890359044066 6.791873410344123 2.5001415759325019 2.94037240743637 20.866309076547623
leaf_count=156 31 127 32 30 38 14 23 24 28 32 31 23 33 17 30 20 23 23 28 36 27 17 21 27 528 24 64 23 26 44
internal_value=-3.99787e-11 0.0433389 0.0185424 0.0105666 0.0185351 0.000839148 -0.00289062 0.00736306 0.000184404 0.0160027 0.020003 0.032074 0.0392975 0.0256784 -0.0106609 -0.00729152 -0.00455703 -0.0173059 -0.00783694 -0.00137233 -0.00795549 0.00423101 0.0107488 -0.0191315 -0.0812368 -0.0801771 -0.080482 -0.0801019 -0.0807364 0.082831
internal_weight=277.508 180.965 111.166 99.0158 54.4291 44.5867 41.2148 29.8214 24.2638 12.7409 10.4439 24.6078 18.9482 11.3828 30.7709 27.8197 25.2844 11.5229 7.55614 22.4407 14.5425 6.95674 7.89824 7.58575 96.5427 31.4051 28.9256 22.1337 19.6336 69.7993
internal_count=1600 779 608 576 276 300 286 173 149 70 62 103 73 50 224 201 181 79 51 158 107 44 51 63 821 293 269 205 182 171
is_linear=0
shrinkage=0.05


Tree=4
num_leaves=31
num_cat=0
split_feature=0 0 3 3 0 0 3 0 2 1 1 1 2 0 1 1 0 0 0 1 3 0 1 3 1 1 3 3 1 0
split_gain=323.191 54.6106 20.862 3.14357 2.83273 1.87564 1.87074 1.72493 1.30026 1.22226 1.83566 1.07724 1.34969 0.903374 0.710686 1.85147 2.43026 0.66636 0.657304 0.596475 0.565074 0.499112 0.423803 0.333215 0.289683 0.259037 0.104726 0.0572853 0.00591335 0.00368077
threshold=1.0000000180025095e-35 0.99919646848087851 0.3184694641476481 0.15334022387081922 0.68795766534247005 0.37064329559693648 0.067618279879336912 0.80101888170131197 1.0000000180025095e-35 110.50000000000001 220.50000000000003 432.50000000000006 1.0000000180025095e-35 0.60226058339706967 332.50000000000006 388.50000000000006 0.57353968883580098 0.67229957245428296 0.55753115475701787 377.50000000000006 0.051763854859062354 0.89373734124443893 223.50000000000003 0.22645307762449948 287.50000000000006 203.50000000000003 0.037836747787861204 0.098392688009538015 388.50000000000006 1.6442999786697936
decision_type=2 2 2 2 2 2 2 2 2 2 2 2 2 2 2 2 2 2 2 2 2 2 2 2 2 2 2 2 2 2
left_child=-1 2 3 4 5 -2 11 8 -6 23 13 12 -7 -11 17 -16 -17 24 25 20 -9 -18 -22 -5 -12 -8 -14 -3 29 -29
right_child=1 27 -4 9 7 6 18 19 -10 10 14 -13 26 -15 15 16 21 -19 -20 -21 22 -23 -24 -25 -26 -27 -28 28 -30 -31
leaf_value=-0.078327356117587843 0.033568453944569948 0.074587920813672284 0.079918510080874902 -0.010384965200669737 0.063178997323609362 0.030673834690863228 -0.020396214321890167 0.029746914396852005 0.02866756893519521 -0.0012181664587291564 -0.017065892077369162 0.041726754568529527 -0.0061508252439221936 0.02946580180763397 0.032413141877898968 0.025386006894341215 -0.039154123371063443 -0.0002821787372630424 -0.036249522033858055 0.037878448869012961 0.017129487711357829 -0.010366993418523195 -0.0052115966525174834 -0.035583306689083286 -0.04059925608030384 0.0016567283717726319 -0.021925932286328064 0.078231380161537509 0.079792283310457388 0.079272081278846787
leaf_weight=86.215097233653069 4.8425154909491566 8.1665642857551557 12.294484138488768 2.7221913244575253 5.2079585343599337 2.7901928238570708 2.3152586258947832 4.0364295952022102 5.7343760505318642 3.4756415486335737 3.2086541168391722 2.5386729091405869 2.069868691265583 7.7418947443366051 3.7803557589650145 3.3574962243437749 3.683006264269352 4.293343011289835 3.2045270577073097 3.4146349504590026 4.7091808244585973 2.5469834171235561 3.8648984208703041 2.5324973873794079 2.2071833238005638 3.1341214030981064 2.1396287642419338 19.137191209942102 19.002270482480526 15.280012682080267
leaf_count=809 31 29 31 24 16 17 23 22 27 27 25 12 19 39 21 21 32 35 28 15 25 20 22 21 21 22 21 60 44 41
internal_value=-5.29477e-11 0.0413199 0.0188444 0.0104596 0.018791 0.00591431 -0.00144682 0.02979 0.0450931 -7.38349e-05 0.00336684 0.0138254 0.00370604 0.0199587 -0.0046983 0.0027796 -0.00890494 -0.0149941 -0.0182799 0.0193406 0.014321 -0.0273852 0.0070589 -0.0225293 -0.0266567 -0.00771283 -0.0141691 0.0784881 0.0790843 0.0786934
internal_weight=249.647 163.432 101.846 89.5515 50.0023 23.0348 18.1923 26.9675 10.9423 39.5492 34.2946 9.53836 6.99969 11.2175 23.077 13.3678 9.58749 9.70918 8.65391 16.0251 12.6105 6.22999 8.57408 5.25469 5.41584 5.44938 4.2095 61.586 53.4195 34.4172
internal_count=1600 791 617 586 300 173 142 127 43 286 241 69 57 66 175 94 73 81 73 84 69 52 47 45 46 45 40 174 145 101
is_linear=0
shrinkage=0.05


end of trees

feature_importances:
Column_1=56
Column_0=50
Column_3=37
Column_2=6

parameters:
[boosting: gbdt]
[objective: lambdarank]
[metric: ndcg]
[tree_learner: serial]
[device_type: cpu]
[data_sample_strategy: bagging]
[data: ]
[valid: ]
[num_iterations: 200]
[learning_rate: 0.05]
[num_leaves: 31]
[num_threads: 0]
[seed: 0]
[deterministic: 0]
[force_col_wise: 0]
[force_row_wise: 0]
[histogram_pool_size: -1]
[max_depth: -1]
[min_data_in_leaf: 20]
[min_sum_hessian_in_leaf: 0.001]
[bagging_fraction: 1]
[pos_bagging_fraction: 1]
[neg_bagging_fraction: 1]
[bagging_freq: 0]
[bagging_seed: 3]
[bagging_by_query: 0]
[feature_fraction: 1]
[feature_fraction_bynode: 1]
[feature_fraction_seed: 2]
[extra_trees: 0]
[extra_seed: 6]
[early_stopping_round: 0]
[early_stopping_min_delta: 0]
[first_metric_only: 0]
[max_delta_step: 0]
[lambda_l1: 0]
[lambda_l2: 0]
[linear_lambda: 0]
[min_gain_to_split: 0]
[drop_rate: 0.1]
[max_drop: 50]
[skip_drop: 0.5]
[xgboost_dart_mode: 0]
[uniform_drop: 0]
[drop_seed: 4]
[top_rate: 0.2]
[other_rate: 0.1]
[min_data_per_group: 100]
[max_cat_threshold: 32]
[cat_l2: 10]
[cat_smooth: 10]
[max_cat_to_onehot: 4]
[top_k: 20]
[monotone_constraints: ]
[monotone_constraints_method: basic]
[monotone_penalty: 0]
[feature_contri: ]
[forcedsplits_filename: ]
[refit_decay_rate: 0.9]
[cegb_tradeoff: 1]
[cegb_penalty_split: 0]
[cegb_penalty_feature_lazy: ]
[cegb_penalty_feature_coupled: ]
[path_smooth: 0]
[interaction_constraints: ]
[verbosity: -1]
[saved_feature_importance_type: 0]
[use_quantized_grad: 0]
[num_grad_quant_bins: 4]
[quant_train_renew_leaf: 0]
[stochastic_rounding: 1]
[linear_tree: 0]
[max_bin: 255]
[max_bin_by_feature: ]
[min_data_in_bin: 3]
[bin_construct_sample_cnt: 200000]
[data_random_seed: 1]
[is_enable_sparse: 1]
[enable_bundle: 1]
[use_missing: 1]
[zero_as_missing: 0]
[feature_pre_filter: 1]
[pre_partition: 0]
[two_round: 0]
[header: 0]
[label_column: ]
[weight_column: ]
[group_column: ]
[ignore_column: ]
[categorical_feature: ]
[forcedbins_filename: ]
[precise_float_parser: 0]
[parser_config_file: ]
[objective_seed: 5]
[num_class: 1]
[is_unbalance: 0]
[scale_pos_weight: 1]
[sigmoid: 1]
[boost_from_average: 1]
[reg_sqrt: 0]
[alpha: 0.9]
[fair_c: 1]
[poisson_max_delta_step: 0.7]
[tweedie_variance_power: 1.5]
[lambdarank_truncation_level: 30]
[lambdarank_norm: 1]
[label_gain: ]
[lambdarank_position_bias_regularization: 0]
[eval_at: 10]
[multi_error_top_k: 1]
[auc_mu_weights: ]
[num_machines: 1]
[local_listen_port: 12400]
[time_out: 120]
[machine_list_filename: ]
[machines: ]
[gpu_platform_id: -1]
[gpu_device_id: -1]
[gpu_use_dp: 0]
[num_gpu: 1]

end of parameters

pandas_categorical:null
